digraph Tree {
node [shape=box] ;
0 [label="income <= 24.0\nentropy = 1.0\nsamples = 6\nvalue = [3, 3]"] ;
1 [label="entropy = 0.0\nsamples = 2\nvalue = [2, 0]"] ;
0 -> 1 [labeldistance=2.5, labelangle=45, headlabel="True"] ;
2 [label="income <= 43.0\nentropy = 0.811\nsamples = 4\nvalue = [1, 3]"] ;
0 -> 2 [labeldistance=2.5, labelangle=-45, headlabel="False"] ;
3 [label="entropy = 0.0\nsamples = 2\nvalue = [0, 2]"] ;
2 -> 3 ;
4 [label="iq <= 105.0\nentropy = 1.0\nsamples = 2\nvalue = [1, 1]"] ;
2 -> 4 ;
5 [label="entropy = 0.0\nsamples = 1\nvalue = [1, 0]"] ;
4 -> 5 ;
6 [label="entropy = 0.0\nsamples = 1\nvalue = [0, 1]"] ;
4 -> 6 ;
}